<?xml version="1.0"?>
<opencv_storage>
<stage5>
  <maxWeakCount>25</maxWeakCount>
  <stageThreshold>-6.6978794336318970e-01</stageThreshold>
  <weakClassifiers>
    <_>
      <internalNodes>
        0 -1 28388 6.2426283955574036e-02</internalNodes>
      <leafValues>
        1.4442916214466095e-01 7.5851392745971680e-01</leafValues></_>
    <_>
      <internalNodes>
        0 -1 29395 3.9766348898410797e-02</internalNodes>
      <leafValues>
        -5.5682670325040817e-02 7.6087182760238647e-01</leafValues></_>
    <_>
      <internalNodes>
        0 -1 29510 1.2299546971917152e-02</internalNodes>
      <leafValues>
        -1.3101731240749359e-01 6.1832588911056519e-01</leafValues></_>
    <_>
      <internalNodes>
        0 -1 41035 -1.1402824893593788e-02</internalNodes>
      <leafValues>
        6.8253552913665771e-01 -1.6231065988540649e-01</leafValues></_>
    <_>
      <internalNodes>
        0 -1 72395 -2.6215484831482172e-03</internalNodes>
      <leafValues>
        3.4328231215476990e-01 -1.6389460861682892e-01</leafValues></_>
    <_>
      <internalNodes>
        0 -1 54549 7.6841032132506371e-03</internalNodes>
      <leafValues>
        -1.9489233195781708e-01 2.9537114500999451e-01</leafValues></_>
    <_>
      <internalNodes>
        0 -1 41857 -5.6085456162691116e-03</internalNodes>
      <leafValues>
        4.1842433810234070e-01 -1.2612812221050262e-01</leafValues></_>
    <_>
      <internalNodes>
        0 -1 1499 1.1426640674471855e-02</internalNodes>
      <leafValues>
        -9.7913578152656555e-02 5.8638966083526611e-01</leafValues></_>
    <_>
      <internalNodes>
        0 -1 73054 -2.7411382179707289e-03</internalNodes>
      <leafValues>
        4.5066389441490173e-01 -1.3620389997959137e-01</leafValues></_>
    <_>
      <internalNodes>
        0 -1 41339 1.6049902886152267e-02</internalNodes>
      <leafValues>
        8.6871989071369171e-02 -7.9272007942199707e-01</leafValues></_>
    <_>
      <internalNodes>
        0 -1 76031 -2.5458973832428455e-03</internalNodes>
      <leafValues>
        3.1240862607955933e-01 -1.8832428753376007e-01</leafValues></_>
    <_>
      <internalNodes>
        0 -1 74117 -5.1127253100275993e-03</internalNodes>
      <leafValues>
        -8.9165753126144409e-01 6.9374948740005493e-02</leafValues></_>
    <_>
      <internalNodes>
        0 -1 44681 -1.3966663973405957e-03</internalNodes>
      <leafValues>
        3.1582015752792358e-01 -2.0475560426712036e-01</leafValues></_>
    <_>
      <internalNodes>
        0 -1 29334 6.3004773110151291e-03</internalNodes>
      <leafValues>
        -2.9812604188919067e-01 2.0202444493770599e-01</leafValues></_>
    <_>
      <internalNodes>
        0 -1 46658 -4.9447782337665558e-02</internalNodes>
      <leafValues>
        -8.6872953176498413e-01 6.9351635873317719e-02</leafValues></_>
    <_>
      <internalNodes>
        0 -1 36481 -1.2523440644145012e-02</internalNodes>
      <leafValues>
        5.6981384754180908e-01 -1.0996727645397186e-01</leafValues></_>
    <_>
      <internalNodes>
        0 -1 63214 -9.0201868442818522e-04</internalNodes>
      <leafValues>
        2.3333123326301575e-01 -2.4589115381240845e-01</leafValues></_>
    <_>
      <internalNodes>
        0 -1 45998 -1.1658543348312378e-01</internalNodes>
      <leafValues>
        -9.2545104026794434e-01 6.9620154798030853e-02</leafValues></_>
    <_>
      <internalNodes>
        0 -1 7407 1.2112310156226158e-02</internalNodes>
      <leafValues>
        7.3082081973552704e-02 -6.5396356582641602e-01</leafValues></_>
    <_>
      <internalNodes>
        0 -1 36269 6.8456758745014668e-03</internalNodes>
      <leafValues>
        -8.5045993328094482e-02 7.6329725980758667e-01</leafValues></_>
    <_>
      <internalNodes>
        0 -1 50966 3.4612598828971386e-03</internalNodes>
      <leafValues>
        -1.4349754154682159e-01 4.1118130087852478e-01</leafValues></_>
    <_>
      <internalNodes>
        0 -1 7827 9.5061585307121277e-03</internalNodes>
      <leafValues>
        -2.0068889856338501e-01 3.4232699871063232e-01</leafValues></_>
    <_>
      <internalNodes>
        0 -1 40391 -8.8612753897905350e-03</internalNodes>
      <leafValues>
        -6.9260609149932861e-01 9.5295593142509460e-02</leafValues></_>
    <_>
      <internalNodes>
        0 -1 23156 -4.3920047581195831e-02</internalNodes>
      <leafValues>
        2.3798687756061554e-01 -2.5390928983688354e-01</leafValues></_>
    <_>
      <internalNodes>
        0 -1 59708 -4.4805588549934328e-04</internalNodes>
      <leafValues>
        2.1403171122074127e-01 -2.6207593083381653e-01</leafValues></_></weakClassifiers></stage5>
</opencv_storage>
