<?xml version="1.0"?>
<opencv_storage>
<stage1>
  <maxWeakCount>13</maxWeakCount>
  <stageThreshold>-7.4736166000366211e-01</stageThreshold>
  <weakClassifiers>
    <_>
      <internalNodes>
        0 -1 45285 5.1302099600434303e-03</internalNodes>
      <leafValues>
        -1.6483516991138458e-01 7.1428573131561279e-01</leafValues></_>
    <_>
      <internalNodes>
        0 -1 41047 -3.1985577195882797e-02</internalNodes>
      <leafValues>
        5.5359953641891479e-01 -2.3154351115226746e-01</leafValues></_>
    <_>
      <internalNodes>
        0 -1 29922 -7.8017544001340866e-03</internalNodes>
      <leafValues>
        6.4809471368789673e-01 -1.7194807529449463e-01</leafValues></_>
    <_>
      <internalNodes>
        0 -1 29513 -1.3003000989556313e-02</internalNodes>
      <leafValues>
        3.8913449645042419e-01 -3.0401843786239624e-01</leafValues></_>
    <_>
      <internalNodes>
        0 -1 1519 1.5691477805376053e-02</internalNodes>
      <leafValues>
        -2.0510745048522949e-01 4.8677814006805420e-01</leafValues></_>
    <_>
      <internalNodes>
        0 -1 39416 -3.3757835626602173e-03</internalNodes>
      <leafValues>
        3.5624733567237854e-01 -2.8102490305900574e-01</leafValues></_>
    <_>
      <internalNodes>
        0 -1 29926 4.1604947298765182e-02</internalNodes>
      <leafValues>
        -9.6456035971641541e-02 8.3376181125640869e-01</leafValues></_>
    <_>
      <internalNodes>
        0 -1 46178 8.4281768649816513e-03</internalNodes>
      <leafValues>
        -9.9204823374748230e-02 7.5034052133560181e-01</leafValues></_>
    <_>
      <internalNodes>
        0 -1 34996 3.7746634334325790e-02</internalNodes>
      <leafValues>
        -1.1250133067369461e-01 6.5226507186889648e-01</leafValues></_>
    <_>
      <internalNodes>
        0 -1 54724 -5.0470899790525436e-02</internalNodes>
      <leafValues>
        -8.2108789682388306e-01 1.1810980737209320e-01</leafValues></_>
    <_>
      <internalNodes>
        0 -1 29875 -2.6919480413198471e-02</internalNodes>
      <leafValues>
        -8.2581979036331177e-01 7.6792940497398376e-02</leafValues></_>
    <_>
      <internalNodes>
        0 -1 10998 2.4176303297281265e-02</internalNodes>
      <leafValues>
        -2.3094354569911957e-01 3.5525923967361450e-01</leafValues></_>
    <_>
      <internalNodes>
        0 -1 35377 -3.1380290165543556e-03</internalNodes>
      <leafValues>
        4.1707655787467957e-01 -2.0529986917972565e-01</leafValues></_></weakClassifiers></stage1>
</opencv_storage>
