<?xml version="1.0"?>
<opencv_storage>
<stage13>
  <maxWeakCount>30</maxWeakCount>
  <stageThreshold>-5.6559938192367554e-01</stageThreshold>
  <weakClassifiers>
    <_>
      <internalNodes>
        0 -1 55133 3.5505190026015043e-03</internalNodes>
      <leafValues>
        1.0526315867900848e-01 5.6756758689880371e-01</leafValues></_>
    <_>
      <internalNodes>
        0 -1 78007 -9.7134336829185486e-03</internalNodes>
      <leafValues>
        4.9467846751213074e-01 -9.1535829007625580e-02</leafValues></_>
    <_>
      <internalNodes>
        0 -1 9224 -7.4541784822940826e-02</internalNodes>
      <leafValues>
        5.3701448440551758e-01 -1.3155448436737061e-01</leafValues></_>
    <_>
      <internalNodes>
        0 -1 35262 -7.5693456456065178e-03</internalNodes>
      <leafValues>
        4.8551225662231445e-01 -9.5820754766464233e-02</leafValues></_>
    <_>
      <internalNodes>
        0 -1 41749 -3.5497564822435379e-03</internalNodes>
      <leafValues>
        -6.4109092950820923e-01 8.6694426834583282e-02</leafValues></_>
    <_>
      <internalNodes>
        0 -1 71854 6.0281273908913136e-03</internalNodes>
      <leafValues>
        -1.0492147505283356e-01 4.5356756448745728e-01</leafValues></_>
    <_>
      <internalNodes>
        0 -1 32645 -5.7107442989945412e-03</internalNodes>
      <leafValues>
        4.7410085797309875e-01 -9.4339475035667419e-02</leafValues></_>
    <_>
      <internalNodes>
        0 -1 2787 1.0616067796945572e-02</internalNodes>
      <leafValues>
        -1.5520359575748444e-01 3.0572077631950378e-01</leafValues></_>
    <_>
      <internalNodes>
        0 -1 55012 -5.5658712517470121e-04</internalNodes>
      <leafValues>
        2.5140184164047241e-01 -1.9518910348415375e-01</leafValues></_>
    <_>
      <internalNodes>
        0 -1 40370 6.2830233946442604e-03</internalNodes>
      <leafValues>
        6.1818912625312805e-02 -6.2340843677520752e-01</leafValues></_>
    <_>
      <internalNodes>
        0 -1 11945 1.0230554267764091e-02</internalNodes>
      <leafValues>
        6.6687978804111481e-02 -6.2893629074096680e-01</leafValues></_>
    <_>
      <internalNodes>
        0 -1 32644 -2.2520483471453190e-03</internalNodes>
      <leafValues>
        3.3026048541069031e-01 -1.2601558864116669e-01</leafValues></_>
    <_>
      <internalNodes>
        0 -1 41377 6.8595260381698608e-03</internalNodes>
      <leafValues>
        6.5297238528728485e-02 -5.9562408924102783e-01</leafValues></_>
    <_>
      <internalNodes>
        0 -1 56153 1.2152891140431166e-03</internalNodes>
      <leafValues>
        -2.1194837987422943e-01 1.9983859360218048e-01</leafValues></_>
    <_>
      <internalNodes>
        0 -1 14061 1.4599965885281563e-02</internalNodes>
      <leafValues>
        8.5111401975154877e-02 -5.0097572803497314e-01</leafValues></_>
    <_>
      <internalNodes>
        0 -1 1470 1.7418699339032173e-02</internalNodes>
      <leafValues>
        -8.6916878819465637e-02 5.3011101484298706e-01</leafValues></_>
    <_>
      <internalNodes>
        0 -1 17911 -1.5764601528644562e-02</internalNodes>
      <leafValues>
        9.3354141712188721e-01 -4.7198880463838577e-02</leafValues></_>
    <_>
      <internalNodes>
        0 -1 49044 -2.0626682788133621e-02</internalNodes>
      <leafValues>
        8.5861623287200928e-01 -3.7285722792148590e-02</leafValues></_>
    <_>
      <internalNodes>
        0 -1 38018 -4.2507208883762360e-02</internalNodes>
      <leafValues>
        3.2696312665939331e-01 -1.1791861802339554e-01</leafValues></_>
    <_>
      <internalNodes>
        0 -1 34325 6.8281511776149273e-03</internalNodes>
      <leafValues>
        -9.2086814343929291e-02 4.4369789958000183e-01</leafValues></_>
    <_>
      <internalNodes>
        0 -1 5928 8.1457443535327911e-02</internalNodes>
      <leafValues>
        -8.7315283715724945e-02 4.4472542405128479e-01</leafValues></_>
    <_>
      <internalNodes>
        0 -1 74820 -1.2896673753857613e-02</internalNodes>
      <leafValues>
        -9.0361368656158447e-01 4.8925496637821198e-02</leafValues></_>
    <_>
      <internalNodes>
        0 -1 28321 -3.0125176534056664e-02</internalNodes>
      <leafValues>
        -4.9900394678115845e-01 7.5332917273044586e-02</leafValues></_>
    <_>
      <internalNodes>
        0 -1 75614 3.4260139800608158e-03</internalNodes>
      <leafValues>
        -1.7257386445999146e-01 2.5706872344017029e-01</leafValues></_>
    <_>
      <internalNodes>
        0 -1 70072 3.4312620759010315e-02</internalNodes>
      <leafValues>
        5.6999966502189636e-02 -8.1672668457031250e-01</leafValues></_>
    <_>
      <internalNodes>
        0 -1 23074 -1.1216764338314533e-02</internalNodes>
      <leafValues>
        -4.8215526342391968e-01 7.6865673065185547e-02</leafValues></_>
    <_>
      <internalNodes>
        0 -1 51634 8.1273622345179319e-04</internalNodes>
      <leafValues>
        -1.5353968739509583e-01 3.0047753453254700e-01</leafValues></_>
    <_>
      <internalNodes>
        0 -1 52647 -3.6909934133291245e-03</internalNodes>
      <leafValues>
        -5.5650866031646729e-01 8.4038212895393372e-02</leafValues></_>
    <_>
      <internalNodes>
        0 -1 3751 1.1172797530889511e-02</internalNodes>
      <leafValues>
        -1.1148281395435333e-01 4.0298300981521606e-01</leafValues></_>
    <_>
      <internalNodes>
        0 -1 41598 9.5561698079109192e-02</internalNodes>
      <leafValues>
        -6.9914504885673523e-02 6.1630749702453613e-01</leafValues></_></weakClassifiers></stage13>
</opencv_storage>
