<?xml version="1.0"?>
<opencv_storage>
<stage11>
  <maxWeakCount>29</maxWeakCount>
  <stageThreshold>-5.3167045116424561e-01</stageThreshold>
  <weakClassifiers>
    <_>
      <internalNodes>
        0 -1 22222 8.8488340377807617e-02</internalNodes>
      <leafValues>
        1.8577075004577637e-01 7.1821308135986328e-01</leafValues></_>
    <_>
      <internalNodes>
        0 -1 33625 4.2791683226823807e-03</internalNodes>
      <leafValues>
        -3.3027261495590210e-02 7.7923440933227539e-01</leafValues></_>
    <_>
      <internalNodes>
        0 -1 1693 -3.0038565397262573e-02</internalNodes>
      <leafValues>
        2.1133482456207275e-01 -2.1540552377700806e-01</leafValues></_>
    <_>
      <internalNodes>
        0 -1 9120 -8.0207079648971558e-02</internalNodes>
      <leafValues>
        5.0831717252731323e-01 -8.4973677992820740e-02</leafValues></_>
    <_>
      <internalNodes>
        0 -1 55841 -3.8963921368122101e-02</internalNodes>
      <leafValues>
        -8.0824589729309082e-01 5.7419728487730026e-02</leafValues></_>
    <_>
      <internalNodes>
        0 -1 78071 -3.7953862920403481e-03</internalNodes>
      <leafValues>
        4.3212088942527771e-01 -1.2375756353139877e-01</leafValues></_>
    <_>
      <internalNodes>
        0 -1 46487 -5.9876963496208191e-03</internalNodes>
      <leafValues>
        -9.2492920160293579e-01 2.9797866940498352e-02</leafValues></_>
    <_>
      <internalNodes>
        0 -1 51182 -1.3942529447376728e-02</internalNodes>
      <leafValues>
        -6.1947232484817505e-01 5.5690683424472809e-02</leafValues></_>
    <_>
      <internalNodes>
        0 -1 76105 -1.0424681007862091e-02</internalNodes>
      <leafValues>
        -6.3414305448532104e-01 6.4866460859775543e-02</leafValues></_>
    <_>
      <internalNodes>
        0 -1 42213 -3.8037793710827827e-03</internalNodes>
      <leafValues>
        3.7177398800849915e-01 -1.2408038973808289e-01</leafValues></_>
    <_>
      <internalNodes>
        0 -1 74367 1.9276812672615051e-03</internalNodes>
      <leafValues>
        -1.3339863717556000e-01 3.1684809923171997e-01</leafValues></_>
    <_>
      <internalNodes>
        0 -1 20750 -4.7814492136240005e-03</internalNodes>
      <leafValues>
        -3.3327263593673706e-01 1.4252865314483643e-01</leafValues></_>
    <_>
      <internalNodes>
        0 -1 39334 2.4660143535584211e-03</internalNodes>
      <leafValues>
        -1.2244145572185516e-01 4.4999623298645020e-01</leafValues></_>
    <_>
      <internalNodes>
        0 -1 67411 4.9173422157764435e-02</internalNodes>
      <leafValues>
        -9.2978790402412415e-02 4.5121771097183228e-01</leafValues></_>
    <_>
      <internalNodes>
        0 -1 69410 -1.0977819561958313e-02</internalNodes>
      <leafValues>
        -4.7288340330123901e-01 1.0061197727918625e-01</leafValues></_>
    <_>
      <internalNodes>
        0 -1 67039 5.8345301076769829e-03</internalNodes>
      <leafValues>
        4.7428615391254425e-02 -8.2698702812194824e-01</leafValues></_>
    <_>
      <internalNodes>
        0 -1 57157 4.0299007669091225e-03</internalNodes>
      <leafValues>
        4.3401401489973068e-02 -8.1884050369262695e-01</leafValues></_>
    <_>
      <internalNodes>
        0 -1 50483 8.2502309232950211e-03</internalNodes>
      <leafValues>
        -1.4346618950366974e-01 3.5054945945739746e-01</leafValues></_>
    <_>
      <internalNodes>
        0 -1 39727 -3.4529108088463545e-03</internalNodes>
      <leafValues>
        -5.8911001682281494e-01 8.0715231597423553e-02</leafValues></_>
    <_>
      <internalNodes>
        0 -1 62818 -2.8631415218114853e-02</internalNodes>
      <leafValues>
        -4.5129054784774780e-01 1.0351186990737915e-01</leafValues></_>
    <_>
      <internalNodes>
        0 -1 39334 -6.3929171301424503e-04</internalNodes>
      <leafValues>
        3.4380939602851868e-01 -1.5716820955276489e-01</leafValues></_>
    <_>
      <internalNodes>
        0 -1 60833 4.9914997071027756e-03</internalNodes>
      <leafValues>
        8.7137252092361450e-02 -5.5703014135360718e-01</leafValues></_>
    <_>
      <internalNodes>
        0 -1 12176 1.0530586587265134e-03</internalNodes>
      <leafValues>
        -1.7820128798484802e-01 2.9128986597061157e-01</leafValues></_>
    <_>
      <internalNodes>
        0 -1 72506 -6.7750071175396442e-03</internalNodes>
      <leafValues>
        3.2319054007530212e-01 -1.5366202592849731e-01</leafValues></_>
    <_>
      <internalNodes>
        0 -1 72821 -9.6803274936974049e-04</internalNodes>
      <leafValues>
        3.1984749436378479e-01 -1.4971463382244110e-01</leafValues></_>
    <_>
      <internalNodes>
        0 -1 46490 -5.3577926009893417e-03</internalNodes>
      <leafValues>
        -6.0694289207458496e-01 8.4643118083477020e-02</leafValues></_>
    <_>
      <internalNodes>
        0 -1 46066 7.6090618968009949e-03</internalNodes>
      <leafValues>
        8.5706077516078949e-02 -5.5615216493606567e-01</leafValues></_>
    <_>
      <internalNodes>
        0 -1 41751 -1.4267757069319487e-03</internalNodes>
      <leafValues>
        3.2510107755661011e-01 -1.5298223495483398e-01</leafValues></_>
    <_>
      <internalNodes>
        0 -1 62732 -2.8515222948044538e-03</internalNodes>
      <leafValues>
        3.9548501372337341e-01 -1.2075290828943253e-01</leafValues></_></weakClassifiers></stage11>
</opencv_storage>
