<?xml version="1.0"?>
<opencv_storage>
<stage12>
  <maxWeakCount>37</maxWeakCount>
  <stageThreshold>-6.2041795253753662e-01</stageThreshold>
  <weakClassifiers>
    <_>
      <internalNodes>
        0 -1 45287 5.6095078587532043e-02</internalNodes>
      <leafValues>
        2.1506683528423309e-01 7.6211452484130859e-01</leafValues></_>
    <_>
      <internalNodes>
        0 -1 22726 9.0248256921768188e-02</internalNodes>
      <leafValues>
        -5.1235977560281754e-02 6.3109225034713745e-01</leafValues></_>
    <_>
      <internalNodes>
        0 -1 35505 2.7957508340477943e-02</internalNodes>
      <leafValues>
        -1.2958230078220367e-01 3.8274237513542175e-01</leafValues></_>
    <_>
      <internalNodes>
        0 -1 69236 -1.6992036253213882e-03</internalNodes>
      <leafValues>
        2.9746684432029724e-01 -1.6894717514514923e-01</leafValues></_>
    <_>
      <internalNodes>
        0 -1 51256 2.1111205569468439e-04</internalNodes>
      <leafValues>
        -2.2958970069885254e-01 2.1870994567871094e-01</leafValues></_>
    <_>
      <internalNodes>
        0 -1 73799 -3.3497984986752272e-03</internalNodes>
      <leafValues>
        -2.4025303125381470e-01 1.9564908742904663e-01</leafValues></_>
    <_>
      <internalNodes>
        0 -1 46178 -1.0823059827089310e-02</internalNodes>
      <leafValues>
        5.9357202053070068e-01 -1.0422584414482117e-01</leafValues></_>
    <_>
      <internalNodes>
        0 -1 29810 1.4805890619754791e-02</internalNodes>
      <leafValues>
        8.5629180073738098e-02 -7.8866773843765259e-01</leafValues></_>
    <_>
      <internalNodes>
        0 -1 63099 -1.2788030318915844e-02</internalNodes>
      <leafValues>
        -7.2338736057281494e-01 5.6436397135257721e-02</leafValues></_>
    <_>
      <internalNodes>
        0 -1 63272 8.3690887549892068e-05</internalNodes>
      <leafValues>
        1.5496467053890228e-01 -3.1444528698921204e-01</leafValues></_>
    <_>
      <internalNodes>
        0 -1 77176 3.9406144060194492e-03</internalNodes>
      <leafValues>
        -1.1262396723031998e-01 3.9811730384826660e-01</leafValues></_>
    <_>
      <internalNodes>
        0 -1 4384 1.3596453936770558e-03</internalNodes>
      <leafValues>
        -1.4747020602226257e-01 3.4016790986061096e-01</leafValues></_>
    <_>
      <internalNodes>
        0 -1 45618 3.0230563133955002e-03</internalNodes>
      <leafValues>
        -1.5360340476036072e-01 3.1344610452651978e-01</leafValues></_>
    <_>
      <internalNodes>
        0 -1 9544 1.7396610230207443e-02</internalNodes>
      <leafValues>
        -1.3363748788833618e-01 3.1431186199188232e-01</leafValues></_>
    <_>
      <internalNodes>
        0 -1 70688 5.5767968297004700e-03</internalNodes>
      <leafValues>
        4.8335339874029160e-02 -8.5217076539993286e-01</leafValues></_>
    <_>
      <internalNodes>
        0 -1 13932 4.5480080880224705e-03</internalNodes>
      <leafValues>
        -1.9255091249942780e-01 1.9384266436100006e-01</leafValues></_>
    <_>
      <internalNodes>
        0 -1 74876 -1.1826648376882076e-02</internalNodes>
      <leafValues>
        3.6368882656097412e-01 -1.1156557500362396e-01</leafValues></_>
    <_>
      <internalNodes>
        0 -1 77575 -6.0459575615823269e-03</internalNodes>
      <leafValues>
        -4.6972015500068665e-01 8.8445484638214111e-02</leafValues></_>
    <_>
      <internalNodes>
        0 -1 64329 -4.1921352967619896e-03</internalNodes>
      <leafValues>
        -7.6252114772796631e-01 4.5744206756353378e-02</leafValues></_>
    <_>
      <internalNodes>
        0 -1 60191 -1.5852435026317835e-03</internalNodes>
      <leafValues>
        2.0221689343452454e-01 -2.0431645214557648e-01</leafValues></_>
    <_>
      <internalNodes>
        0 -1 77391 2.9734573327004910e-03</internalNodes>
      <leafValues>
        1.0934520512819290e-01 -3.8706791400909424e-01</leafValues></_>
    <_>
      <internalNodes>
        0 -1 69598 -2.7075293473899364e-03</internalNodes>
      <leafValues>
        -7.3453253507614136e-01 5.6305401027202606e-02</leafValues></_>
    <_>
      <internalNodes>
        0 -1 74820 -1.5365732833743095e-03</internalNodes>
      <leafValues>
        2.6866483688354492e-01 -1.6389380395412445e-01</leafValues></_>
    <_>
      <internalNodes>
        0 -1 46484 -2.3925332352519035e-03</internalNodes>
      <leafValues>
        2.9044994711875916e-01 -1.2508329749107361e-01</leafValues></_>
    <_>
      <internalNodes>
        0 -1 35608 4.3834418058395386e-02</internalNodes>
      <leafValues>
        -8.8483728468418121e-02 5.5443745851516724e-01</leafValues></_>
    <_>
      <internalNodes>
        0 -1 46059 2.0401770598255098e-04</internalNodes>
      <leafValues>
        -1.8449774384498596e-01 2.2407032549381256e-01</leafValues></_>
    <_>
      <internalNodes>
        0 -1 45702 1.3210399774834514e-03</internalNodes>
      <leafValues>
        1.3489063084125519e-01 -3.3791348338127136e-01</leafValues></_>
    <_>
      <internalNodes>
        0 -1 73238 -3.0464683659374714e-03</internalNodes>
      <leafValues>
        -4.8054122924804688e-01 7.1287527680397034e-02</leafValues></_>
    <_>
      <internalNodes>
        0 -1 67347 -3.3576197456568480e-03</internalNodes>
      <leafValues>
        2.5570833683013916e-01 -1.6626308858394623e-01</leafValues></_>
    <_>
      <internalNodes>
        0 -1 66580 -6.4774388447403908e-03</internalNodes>
      <leafValues>
        3.5329830646514893e-01 -1.6142061352729797e-01</leafValues></_>
    <_>
      <internalNodes>
        0 -1 40374 -1.1809014249593019e-03</internalNodes>
      <leafValues>
        2.9975029826164246e-01 -1.2582655251026154e-01</leafValues></_>
    <_>
      <internalNodes>
        0 -1 33665 -2.2230930626392365e-03</internalNodes>
      <leafValues>
        3.1679731607437134e-01 -1.2829124927520752e-01</leafValues></_>
    <_>
      <internalNodes>
        0 -1 13621 8.7426067329943180e-04</internalNodes>
      <leafValues>
        1.7705118656158447e-01 -2.2970518469810486e-01</leafValues></_>
    <_>
      <internalNodes>
        0 -1 41436 -7.3646763339638710e-03</internalNodes>
      <leafValues>
        3.9436426758766174e-01 -1.0536006093025208e-01</leafValues></_>
    <_>
      <internalNodes>
        0 -1 56149 7.6296175830066204e-03</internalNodes>
      <leafValues>
        5.6573420763015747e-02 -7.4186384677886963e-01</leafValues></_>
    <_>
      <internalNodes>
        0 -1 23813 -3.0644703656435013e-03</internalNodes>
      <leafValues>
        1.8952736258506775e-01 -2.1959361433982849e-01</leafValues></_>
    <_>
      <internalNodes>
        0 -1 40975 -8.2584219053387642e-03</internalNodes>
      <leafValues>
        5.3056466579437256e-01 -9.4791345298290253e-02</leafValues></_></weakClassifiers></stage12>
</opencv_storage>
